function [Y,Xf,Af] = NNFF_100neurons(X,~,~)
%MYNEURALNETWORKFUNCTION neural network simulation function.
%
% Generated by Neural Network Toolbox function genFunction, 12-Feb-2015 22:10:36.
% 
% [Y] = myNeuralNetworkFunction(X,~,~) takes these arguments:
% 
%   X = 1xTS cell, 1 inputs over TS timsteps
%   Each X{1,ts} = 25xQ matrix, input #1 at timestep ts.
% 
% and returns:
%   Y = 1xTS cell of 1 outputs over TS timesteps.
%   Each Y{1,ts} = 1xQ matrix, output #1 at timestep ts.
% 
% where Q is number of samples (or series) and TS is the number of timesteps.

%#ok<*RPMT0>

  % ===== NEURAL NETWORK CONSTANTS =====
  
  % Input 1
  x1_step1_xoffset = [-2.49915113534333;-2.13948596159315;-1.74759012495989;-2.23377870178649;-2.40140955994276;-2.95211995734922;-2.63835476950616;-2.11102628727829;-2.70688549556845;-2.55305557960259;-2.36050510531567;-2.39962753897284;-2.44924944064939;-2.36890107414674;-2.77782152653539;-2.86449868780414;-2.58718439898307;-2.41141531569661;-3.18777473411848;-2.09218405708499;-2.71688170433731;-2.05305946808411;-2.07587759765698;-3.05884694532218;-2.26951910837752];
  x1_step1_gain = [0.377267413463511;0.434998802464901;0.459760114246147;0.413281265056271;0.385083468515026;0.316573997123783;0.387534262385744;0.307265891185667;0.346272683918349;0.322312326116859;0.315856378479504;0.344446563800704;0.347529750398008;0.307918838371029;0.41440018876602;0.329092939489022;0.347452780863873;0.385865513751887;0.371835039870263;0.316459237810206;0.355037343713124;0.44999056280674;0.423383046117211;0.323073057704658;0.368280810715538];
  x1_step1_ymin = -1;
  
  % Layer 1
  b1 = [1.6340912504809399;2.116150419434971;1.6605369848461928;1.0777178583306248;-1.6197115226381005;-1.5771517625639377;1.5139393138218995;-1.3225077408153478;1.504035487103627;-0.98775273555525334;-1.673411541296919;1.8836248153062265;1.1998384178193495;1.2156761255867476;1.2844848918735308;1.3201142682825033;-0.96345518740132885;0.7380169846340171;-1.3760582503983598;1.3585758179444154;1.012947617021362;0.84043263835230142;-1.5045325701586028;0.93237477726158446;-0.21072701122763884;0.9097283037841094;-1.0302871057260659;0.81738377786188043;0.65488179370817257;-0.99342339953691028;-0.22713816937996115;-1.4656800849913287;0.6719355222315867;0.79081855240850507;0.69511080447649443;0.57091355792245779;-0.60615092117382341;-0.20586618260773137;-0.34654049869557652;-1.4867246439623079;-0.38409853665587712;-0.44897480851058713;-0.17246212207939537;-0.47490245886604376;0.11881500333639908;-0.4443478642873821;-0.16675113024078653;-0.28775122441206374;-0.58551367071940152;0.1221296078815043;-0.42177062525246473;-0.24216030439459493;-0.18612189046349453;0.48442621226317156;-0.52439718248697709;-0.1694894938802389;0.022872340832171153;1.0259832981282575;0.42997029607528342;0.85952336057106515;-0.31216321284609977;-0.35560983515811379;1.1074531552342526;-0.3930940231728357;-0.4162925896719209;0.13884731877791756;0.049782476630511226;0.62413957475284909;-0.26987403355826534;1.6856571532286782;-1.8379018387719768;-0.82925903276695145;-0.77875299900637851;0.85203706124682332;-0.89906220360875089;-0.81910503322604367;2.0104193894072844;-1.5002238416532563;-1.0713191981522083;-0.83610858561921064;-0.95491107697719302;0.92428302049041822;1.1139687276485495;1.4284029394801674;-1.3800646560291565;-1.2189351498373795;1.6332042860093783;-1.845764727811892;-1.1906619863762915;-1.2949628995991049;1.4102463141577815;1.3763024922263947;-1.5977017917783316;-1.5628857744375007;1.2247703269277646;-1.4856232176164235;1.6049910746827463;1.3388186318652717;-1.8755069905040662;1.7581220918142715];
  IW1_1 = [-0.21115525144876129 0.36405680360784609 -0.20585243009839949 -0.5552712376363772 -0.53257963408000675 -0.23635220601031454 0.5261342449759554 -0.55435534363337036 0.43588394251626644 -0.46543280011153848 -0.45084132184753906 -0.20724457947550268 -0.24962591302793855 -0.139306430391442 -0.38687535581121774 -0.54723972763253115 0.13543416144356915 0.097801519035256801 0.38616042762998365 0.24295886834930344 0.15593530515098747 -0.15817932790789851 0.055297552356193692 -0.29999329519244533 0.19129752106518982;-0.066943445108199842 0.72228955553056018 0.40620896746144974 -0.57495642208776643 0.39117110038908637 1.3670738964972273 0.4995027087778906 1.0366901397851374 0.37440126776778099 1.4754606868647904 -0.31622597009952474 0.7364726418943307 -0.20941483441566661 0.28472062153282912 -0.15870475771756481 -0.63042529887114618 -0.61177030681998934 -0.15544942099958248 -0.18126130574349664 -0.44862773183384097 -0.25184116960577546 0.25750080008661369 0.04860025892263705 0.3233624333495973 -0.14574239694195074;-0.46687875424296577 0.27093175208500603 0.13981655137891202 -0.016459444366132166 -0.34679931908131978 0.48217162484016396 0.56588926534163031 -0.48641487559218582 -0.12914600145826138 -0.35257799725100092 -0.22758696118609381 0.32983209716329559 -0.24807728621053227 -0.42164875497452053 0.062968115006193745 0.41340036083020593 0.12153516228984307 0.44345048885341359 -0.26041888079193926 -0.23491929363014813 0.10658926698554815 0.41998262409641718 0.42357899280990113 -0.36535786218525917 0.13007627197993588;-0.65285632790551062 0.20071464633333364 -1.3290519890107204 -0.85028911467220802 0.19485861899100496 -0.49823483114407524 -0.10342345494301849 -0.4237826101121927 -0.64585715713247438 0.62968301469162336 0.64370499485049304 -0.53377406679223238 0.69484050721735158 -0.067460307494061941 0.087029373693604306 -0.56835092378832774 0.32390210203475372 -0.06880378682467013 -0.31977945250282785 -0.50108184728236194 -0.33322410282390613 1.5694829184643337 -0.89690024727010498 0.52220223883790418 -0.51175913317372157;0.43738488817991339 -0.23113190369719488 -0.27591626190775043 -0.11034438603009525 0.045322978022934307 -0.28096658830424237 0.26650479631825424 -0.2073146698621417 0.44448603490433242 0.17330394973208649 0.3791757093369571 0.45884712684523266 -0.35464464588722872 -0.33182962758239615 0.42548254465461305 -0.32330880927708516 0.44816155386407314 0.32157066890762581 -0.032690036988310668 -0.25391850962259849 0.43424927073736169 -0.49179043072020595 -0.26729399998634684 -0.17436256829844524 -0.37985755122699311;0.2051174935463175 -0.21420883341509755 -0.44536881079687157 0.14523089893712834 0.30760966755705588 0.3181757293333804 -0.42063135717593081 -0.16403565087004471 -0.0019402467569333774 0.21997405562912423 0.310935602503075 -0.22767089356271986 0.42696005284552019 -0.43345577303890559 0.54058921659251347 -0.32796575413094103 0.44398973982138173 -0.36019883231232236 0.48521080744914918 0.21026311864950264 -0.24449042302573123 -0.14619653288685239 -0.29253144022021865 0.43241358168302035 -0.33630980334681504;-0.79298897938604729 -0.24799464396655249 -0.057401417675583641 0.48196057098879147 -0.51212032151154363 -0.1831288090246484 -0.79192503931616443 0.0019569163732879782 -0.68798340859144058 0.14764604971639503 0.18116399441542053 -0.1938893059749357 0.26107149154076381 -0.47770203958772617 0.71373402960659027 -0.14841753139080058 -0.56205652184835286 0.47070574121813807 -0.14857820054700019 0.69132988417320118 0.50983871400315284 0.59052390770545038 0.57796519061129314 0.46277882035776868 0.63602730407163455;0.38292526164946339 0.40346268351993214 0.38067984342185068 0.20149878984722322 -0.41870996303190522 0.52281368022556451 0.44606719784198157 0.052539100375317921 -0.28153309610403943 0.35887617901890784 -0.3143510157508545 0.19731012468894848 0.0078569165351702434 -0.07063411137003929 0.18891233302711857 -0.056947178344472972 0.64160456413299982 -0.1464335468401694 0.27414828453452744 0.2535957343598344 -0.41095472880482148 0.65764476614683343 0.10626279886278356 -0.56622363928689612 0.44982001524712412;-0.2469488428107974 -0.51366495365827636 -0.32560143638357503 0.047333991138775955 0.27302854890216866 0.0036271448097420435 0.55910032803004961 0.38902049767976105 -0.34376157551921399 -0.21579796704561235 -0.22392976400665249 -0.10990548996253127 -0.48723496529842203 0.22625759967796324 0.50634845669377826 0.3322548905107362 0.053341322280551509 -0.57147359465899383 -0.4255625290086803 0.34398959412184527 -0.04930566668022527 -0.43791084883733206 0.12558361732414325 -0.013583308263443925 -0.062471158035891566;0.6765436767854095 -0.0073375247815717975 0.72013570245862335 0.67926708699673288 0.21349453279743116 0.3168681370035667 -0.17820904379052571 -0.21181309118138489 0.058260877185577035 -0.16990194303872502 -0.4858585654165653 0.80063062614914893 0.20898000969379615 0.081797663179547717 0.12329224597651607 0.52883290992579501 -0.49047888428474212 0.034217423443379316 0.4437922252277523 0.39958130412093573 0.24624730513742912 -0.82026556100415204 0.60502190160066083 -0.33659122129350388 -0.26666659712012897;0.41746760254374216 -0.09072274327234052 0.84506228065010491 0.15619675088013049 0.13427350215211278 -0.28291775763204668 0.45022282192792856 -0.36191282352627019 -0.23415965670990663 -0.28250936248527325 0.35475325911496286 0.086500784424850083 -0.082373815437045264 -0.39840332923283994 -0.19551025506092379 0.49236715738201509 -0.021960759785959651 -0.97882466057208839 -0.22715068259640087 -0.123497293622469 -0.080800413736189153 -0.43944665824464718 -0.62225106488940629 -0.60498500410964307 -0.5932972325080943;-0.59448345642032008 0.21976763057568319 -0.99641894248240293 0.020763755170105567 -0.32206241535108149 -0.080309198857288391 -0.31123753418496669 0.61286739392986533 0.39308514655882776 -0.72582348801840657 -0.0058333635501305733 0.43321766340896462 0.012173242219777607 0.18143452735795534 -0.43886441578968405 0.57555306321641886 -0.51683483019742182 0.47498165594929992 0.14796115423832321 0.99410496861855968 0.2843813785669228 0.21801202481400839 0.55220940169340293 0.1497945860202855 0.35535617430288052;-0.25561360665490485 -0.19130104014100896 -0.38737061377233367 0.54406292566729908 -0.40563890663068969 -0.053517230946180883 -0.31549272969871983 -0.024097521584292014 -0.47161062895357975 -0.10286287918959588 0.38051748205456087 -0.3681808379286573 -0.02505617371120639 -0.48748233302916599 0.40558692004997815 -0.076137634405596108 -0.36689433038937058 0.67043920882045083 0.17042008403603789 -0.3867862948544768 0.66476909856742383 -0.099208474081953241 -0.2168547458051697 -0.11318461683757733 -0.031433184411785955;-0.36731230937566345 -0.48732774380644922 -0.027994641943713483 0.52035121194559641 0.33594701180374126 0.33012606135422717 0.34641887066089461 0.65790419078987183 0.22097294057348113 0.66426262501158528 -0.17645535518854799 -0.31029167955796638 0.036629637518896807 -0.36330506720282163 0.12813670730480348 0.045347007618022538 0.24067580177849535 0.33358511151158271 -0.31014603497066001 -0.38019395272436857 -0.19920021117605696 -0.18531033444105149 0.42182643867633335 0.42515170767721994 0.37731867956684728;-0.21306041498221517 0.3007394648874665 -0.41428909248861107 0.0079515837301473973 0.29409892196441806 0.36131598652625962 0.24896551218895602 -0.20166457608695326 0.079741050129309626 0.047384742143650765 0.28598200807524282 0.89805809298611272 -0.8537088401530265 0.83724671077426427 -1.3933953076138401 0.15525154710660152 0.46504326708920307 -0.8109877822211542 -0.21296459197762405 0.48385051033789439 -0.1585993572937506 -0.94052099945161138 -0.55334147536337275 -0.66733586182961957 -0.2187333761673593;0.073293109122595373 0.21813226949605447 0.82268814313432204 0.68775793687262177 -0.76440364307181152 -0.054136437110962637 0.12161496596157181 0.74396671457058261 -0.047389058022664098 0.45412568072152554 0.10857494609694772 0.44701225203244244 0.22797466728049645 0.65482056382526155 -0.28581223308165477 0.89790083814739441 0.070371828003211984 1.560915229953608 0.94612202019000657 0.18579849894163869 0.8272687424861408 -0.75136725807789129 1.4323874711780742 1.3247767114619815 0.39702964611601149;1.3360094668917044 2.8045114607148158 -0.82934769271904241 1.4776111741611846 0.49981177959435297 0.28821259772037644 -0.94223862018154481 0.80174141090961892 -0.55491885092172477 0.84074012862439118 -0.60598640827654571 -0.54310903758924278 -0.57057089747626011 -1.2178518200367277 2.2410420923881755 -0.4793406385140942 -0.31292677774777061 0.96387081274200981 -1.0333172300270497 0.92393909981292621 -0.31412600509388566 -1.9580404662910729 0.056301740126070178 -0.73993913399183164 -0.71767778979070129;0.20252630303023642 0.92200007494643588 -0.1978609319490881 1.0411531733871422 0.075429088933580787 -0.14966495920164097 0.35755948693422179 -0.41539341342459002 0.17173987465499463 0.060319783013720596 0.62571177385938437 -0.69191639226358947 1.287321538936343 0.24776233407728496 0.17485401413005555 -0.67599381532566383 -0.037400845524454905 -0.69707335178148089 -0.7794169874223793 -0.45797575613254021 0.35233342901134812 -0.18000863039779144 0.54612508361915457 0.68198720019080739 -0.040570394898709797;0.35331909895418195 -0.49697686418091019 0.45842331486548776 0.32664079152904651 -0.099398647910715149 -1.0128864641468229 -0.18454226593742598 -0.24602963232773567 -0.90281948276563506 -0.41985371394012566 -0.29524805658500108 -0.67836954571322994 0.75154571085468735 -0.022406143433784876 0.68802705180464074 -0.22021144863200767 -0.12014939832416426 -0.54630570224456643 0.25774747187504077 0.35475079545631633 0.25509895093168022 0.13347508115338025 -0.074112596272301601 -0.30292359764709886 -0.13600507538269391;0.18055349956286634 1.2270693740695642 0.17217718595225279 1.0094278327987722 0.88607640880504557 0.25363305702020528 -0.39053434414034155 0.049800600154691253 -0.32111413844623715 -0.02365816246404125 -0.29814429404539794 -0.50655611004092327 0.56980032495375177 -0.83534342856124066 0.66483068076977758 -0.33144336085412535 -0.33253281075322783 0.29982770941247472 -0.64614393974385198 0.3194578303648441 -0.91731559929447559 -0.45150035357068286 0.24940004942033067 -0.62418879756092194 -0.17993707326549851;-0.10530113425310932 0.31599554351050929 -0.091011225441300345 0.053053952743122176 -0.088956026736323204 0.16268127468343793 0.066796205283185098 -0.061130340003151359 -0.38487596926533668 -0.041208184675787587 -0.18539398174102403 0.52551479298976689 -0.23992757590281244 0.1303340453562713 -0.54070956734064923 0.4784632967635199 -0.53943651753629629 -0.45677514304878442 0.1501327138438788 -0.21590396833474862 -0.48400565497184661 0.44681013281912396 -0.28986132735226189 0.44080074147440573 0.47150437730358474;-0.17218841700028256 0.30702150370349873 0.35189637458711104 -0.22082798008077567 -0.58332378059234524 -0.032586007794102596 0.42643218275686939 0.4976506716852348 0.59631029889487142 0.26313845968406424 0.52234560864992818 -0.41916598613600919 0.52752609310084508 -0.057685238275166507 -0.37123109509332203 0.19860821408236581 0.436705645056438 -0.38081644073783566 -0.17625277842019421 -0.10351854233822594 0.13888016445725321 0.36646402224525348 -0.5521562221185059 0.32265005159935228 0.13335545028394233;-0.28795290004230828 -0.34119580551294248 -0.60797356040369732 -0.13075607759871075 -0.076267294395928428 0.23008763406255303 -0.50055150029065154 -0.63038639995389678 0.3880194542388411 -0.79642025049048992 -0.28803062237675714 0.26952139129683939 -0.32171749575404213 -0.43223027051962482 0.35635499461993836 -0.92227120308045085 -0.44171246406579018 -0.53580174998176366 -0.13471706747381648 -0.47910608069087157 -0.37144679852199175 -0.021050829178339701 -0.69682913654477019 0.035930071117880498 0.31771186764773873;-0.14316828408076357 -0.011553398256683533 -0.33129436775369364 0.39857082198117438 -0.21652362705819506 0.16143387450606361 0.42736396463082765 -0.19357487983068006 0.66263968410081875 -0.60697178690416864 0.2871203793358672 0.5627975251299121 0.29741663020762271 0.18433362840811282 0.51045682847639773 0.0161046738918861 0.44383523510580736 0.29503327401140095 -0.41543136899188066 0.24079821772265506 0.10311569413881518 0.023934332721691098 0.36985360781317456 -0.12833217838054969 0.49556825677943317;-0.76489272837887834 0.1411691349549464 -0.19966716342116475 -1.2094665428871103 0.60925961114634597 -0.97564449290723787 -1.3273364648746366 -0.053182092963981333 -1.1066952432427499 -0.99870131740177204 0.92049475406015591 1.3817646934638061 0.23005715241812236 0.99796486307221688 0.39103638034227139 -0.23217191139379664 -0.13582346524787645 0.11019618977008945 -0.15276982855451934 -0.92590294581220323 -0.71353585096284233 -1.2610374353229186 0.75737454052963538 0.026289652198381398 0.10565652409495463;0.25998986106968675 1.7960431231204259 -0.85945541870049025 0.80299682002583228 -0.11961388843639198 -0.55611330398711267 -0.44274095172957523 0.31422333031886812 -0.49682317107148327 -0.96312666249595258 0.81684977977770279 1.2607231946979198 0.66111340694055765 0.83072788356219229 0.078102418363754936 0.2238193698500206 0.075888997044226844 -0.16714669099722068 0.93533704347404056 0.23479011156537211 0.35355465066790109 -0.23947382302351122 0.81119298278601504 0.30081488174069204 -0.5365195076538618;-0.26598496130054472 -0.3133440480362763 -0.61173265391531739 -0.63885516855255553 0.086418093362817028 -0.052478193240456994 0.02209878138897305 0.26673147565024069 -0.32859469583378981 -0.096109438918585394 0.31252272932462571 -0.053233489726377314 -1.0932200516110737 -0.2936098531473833 0.16473770289370254 0.55011101004856466 -0.15762826388222476 -0.30431837120664468 0.56657554527242027 -0.32094591192761118 0.32661754954574956 -0.10839399845650874 0.18151063416991162 0.56591503455913306 -0.47692534344464294;-0.54377664057872999 -0.083333734735487802 0.26012120709567899 -0.16375609421162116 0.21910944017991635 -0.31272832162203784 0.33896112502793896 -0.16914424312377002 0.34716156679494575 0.04755180024197269 0.33141592135391018 0.0033913939091105186 -0.35496163378557499 -0.20727109192378157 0.55734163535092829 0.66712366541247914 -0.18070553505437723 -0.13310897403425101 0.034132075374234419 -0.69381557318163523 -0.49037381692871851 -0.33551639682402518 -0.39598233875440209 0.05758504411735571 0.3068514148004392;-0.37454016361965875 0.55847386117514142 0.21039104411321899 -0.060020335855399044 -0.20516399825765122 0.069110743700735125 0.15428131211774504 0.62992124210210598 0.4972510544255454 -0.37958924407277522 0.44484171215098178 -0.19043844968239018 0.0074639124781320093 0.52143103479566733 0.52537797078350212 -0.0016708155317715534 -0.20187245297835354 -0.40000354224269435 -0.42744270485734354 -0.093732082799866251 -0.25018882996243619 -0.61424780883832342 0.20313704577417582 -0.16319668619649619 -0.56118383754775847;0.12933075101299904 0.60847810553558968 -0.8632097639093117 -0.60801592444051766 0.10425600677126809 0.18585938740962091 -0.31694610636892884 -0.71702718882824568 0.63077454367062091 -0.66069147373766135 -0.29889938575427899 -0.54471917564187955 0.68897664884050436 0.38744538770115999 -0.81505319113462127 0.41786575429995892 0.72845568011494266 0.35551811533589978 -0.07991202550342931 0.59376943820470185 -0.60322672049383497 -0.48004705938068593 -0.26064794283746068 -0.38462175823884215 0.17671547603668919;0.50889833504894277 1.4917131171478448 -0.032328904063108753 1.3182251334421244 -0.058846490256480817 -0.59354606841692525 -0.6617330648874995 0.57478570770727688 0.29650237050847505 -0.088146457115376248 0.50063192723871597 0.60892312528127945 -0.15675046739517748 -0.77697887434245416 1.1131983064029141 0.045970218528169432 -0.087643392918068816 0.11028122085890112 -0.0064132254482579497 0.96050350380642513 -0.74684932195682074 -1.3549493667672123 0.18289295954289059 -0.48969364467780402 0.55518167664519824;0.57258345825738455 0.75479650678972632 -0.92881434296982202 0.52823326887421673 -0.053991001211089761 -0.093943018888836258 -1.2809824669556478 0.2008454033176347 -1.0210401044490034 0.42125492020084587 -0.51504873964024278 0.13684829319822125 -2.4072368045076296 -2.0608588870570204 1.4127095071287479 0.15295171000109289 0.19780945409932668 -0.42602740344866064 -1.5766790219496265 1.2274512986095729 0.53647264298066122 2.5591751280014474 -1.2491284428674188 -0.74228855351167999 2.5736628205507728;-0.5127937327494273 -0.44971978302633336 0.2927813357757435 -0.068596961612159418 0.25700403299564478 0.27498514214141773 0.36447927691294318 -0.15567467794386775 -0.33382314319035561 0.11103153101505647 0.30927931699339334 -0.038937942834606873 0.49061284733054289 -0.16908733938913761 -0.099485427563656567 -0.19131663090355297 -0.40691961001429749 -0.43033899905992351 0.52705366765450679 -0.26015054248426184 0.48562414840980617 -0.13906964337370864 0.52285633659863506 -0.03891711607990795 -0.19375598955780454;-0.33348906642729648 -0.081313369746759193 -0.12740694997890606 0.2795361278137703 0.3000409578521831 0.47599479219165736 -0.053445294144701512 -0.4067631937061213 -0.31772415561102652 0.55032125237365681 0.48803909816693986 0.60749030809742954 -0.7076685479526803 0.35801189234628683 -0.59757547156853275 -0.035058185686788305 -0.36957809619001769 0.45720607805952418 -0.14928675697165719 0.26058327325545638 0.20722683320248964 0.18384096744797404 -0.48614206816787403 0.069298598363094405 0.31322221873811357;-0.066284189774122801 0.31776747453953202 -0.20656098397342693 0.3577605211115486 -0.24313508349848936 0.11988034008886771 0.4137798441351756 -0.017390775851376928 -0.29644621412699962 -0.49460855391805608 0.30199619270379707 0.11045404189492491 0.18433565845616809 -0.1403359241714692 -0.40428282704767649 0.17969600718475592 -0.34179621286536416 0.23894211014160432 0.56202863351354715 -0.36224250741500041 -0.67988110446246741 -0.074814244819753947 0.35880788711658673 -0.25089072076105601 0.28494879982720178;-0.24877784750987783 0.63456926199664077 0.13761497930331909 0.25275146215707811 0.21034290631090805 0.41878814129431008 1.0632109875346534 -0.20148123773171234 0.41932556677286398 -0.023402005476802594 -0.24074953933141072 0.77095474431232081 -0.39079634333378288 0.21925004732074621 -0.22762008226486374 -0.15513851382619592 -0.19115995719725798 -0.48273993759588535 0.41749172907719262 -0.62367378764004922 -0.2807980251378096 -0.43215169140287346 0.019141255964539184 -0.72409069615218169 -0.16603104574115315;0.3150083276984107 0.80929778508182215 -0.56560604093472111 -0.2014193210815918 0.10805163526039614 0.20395355101185278 -0.20432005141622095 0.5196326883068535 -1.0232290900269416 0.87336405223849045 0.14374736786169112 0.096367794894622633 -1.3392392850001558 -0.93023597244552692 0.87911673209927166 0.60862284643943021 -0.24282959523875011 0.28474231439921599 0.18918513483977384 1.1564429734428934 -0.13513400714001397 -0.46344578508449513 -0.30995524549039205 -0.33025641447632176 -0.36166223577374096;0.41833184862340617 -0.32313439179101022 0.24025457250135984 0.44335169550687797 -0.57536798596322281 -0.32004025420292948 -0.17258661925951918 0.52651633016701627 0.15249622500699686 0.26384620213007481 0.46805621610708953 1.0100932562916094 0.67622266550969445 0.15747542390424477 -0.54208121678495613 0.15371528474100404 -0.50205518458195042 0.19361397125058763 -0.38070805775858924 -0.14787769058289829 -0.32786996970027493 -0.58509967539056185 0.39959610312204563 -0.86979330841949731 0.27485695780002389;0.82136046608698787 1.7213619243727269 -0.96173471351759043 0.2846876507556646 1.3052730338630856 -0.60867487613764804 0.79156863122703602 -0.2700332341835131 -0.7607539831859006 0.10850859761487387 -0.58289499573989956 -1.7283201865984488 0.043117401301591141 -1.2161627557417176 0.50078875893172503 0.31335768715846773 0.012495723128524969 0.32758269930310824 0.55826437993567446 -0.52222864328550223 -0.38487031184998038 -0.57296334490848611 0.16139452479644473 1.5722141601577211 -0.64896181490556015;-0.0085356862290834334 -0.92478018005071128 -0.77825059489264004 -0.95963795936015994 -0.58323043011706244 -0.97307144746820007 -0.10182822856933386 -1.1282633055624069 -0.10429925419220329 -1.2579319941607037 0.075893179401319552 0.92463089369801643 -0.48525351655058491 0.040808580361976904 0.31151863336561725 -0.11608924605077311 -0.015669621813851668 -0.83538011430551984 -0.010344540325192553 -1.058546622513139 0.079353557377926209 7.7204307625867476e-05 0.15524583075795026 0.1709739546881314 0.2651528780408996;0.20722586499647927 0.4717572999789551 0.70028862790611979 0.23734127421511172 -0.17103131108303907 -0.13746469081705978 0.36771514231998143 0.41444958316696817 -0.32232115678544804 -0.49964108222501741 0.35076239581191676 0.75341960187727053 -0.38270548532479359 0.60793359444921891 0.33157751706649413 0.85929134653973749 0.57032678364669698 -0.087977846185859895 0.56126218338386147 -0.26714174732875962 0.30342706150795379 -0.61912825017701867 0.87052273051762719 -0.094802615293521297 0.0084554236859053535;0.025687302754021649 -1.4209704581540603 0.54949770983569812 0.21495600638439954 -0.52518183412642316 0.13388621227758976 1.7214717813104292 -0.89172095420312802 0.84692991725869993 -0.17012196433074367 0.39148062118546989 0.52359937353812402 -0.2217722218062938 0.91248671862310016 -0.59480905597574096 0.55850635798682891 -0.053832155336445073 0.079898855727677756 0.14548004974522968 0.63209945112441124 -0.051017079819719438 -1.0454079284624433 0.98032820503135654 -0.47350635238646904 0.94486830010715139;0.50180923946893674 1.0724129353943817 -0.011438318465087674 0.65837623133688572 -0.039580124871743179 0.15962697726988181 0.33487099524256109 -0.62025238530723215 -1.0898237514081353 0.31251833418620645 0.84887264725895584 1.0252219602640813 0.57689810421461651 0.12957961285783168 0.28689357557490053 0.328817172586994 0.44932793780476638 0.49499433086445499 0.99880377955605615 -0.57326939415302425 -0.026310335947556204 -0.3828254697310024 -0.11154818023808838 0.25958020896955097 0.30716918357211276;0.35980854771742732 -0.39527405594880693 0.27075640691065872 -0.032960030263785571 -0.2177467355192263 -0.71357512609358764 -0.85862134771077891 0.25020917196184222 -0.42931492468162313 0.28157904420096225 0.0089789413907357292 -0.97425779735130358 0.91914337179574646 -0.4108712074256185 -0.50715710342094367 0.18063764261641393 0.2405199958519052 0.17748426848252369 0.22909438512349259 0.79819910789664517 0.062172810458585089 0.57095841536250524 0.34134938998415354 -0.43808924643901359 -0.31426246806347163;-0.67831441128376735 -1.0295552875826004 -0.48057666031241891 -0.60380975451935193 -0.34421956816046784 0.012820289894517844 0.39226493087137493 -0.30305273011770995 -0.012981556779884449 0.62590809257072622 -0.57164577856147636 0.033843396826359042 -0.090210602545718374 -0.10036619594611883 -0.41894477018701426 -0.033575830252970833 -0.51315434904379731 -0.19910576367495952 -0.36416826415039183 -0.202808871816713 -0.66373027816677299 -0.63127157771507214 0.18008194343314499 -0.66945096883751254 -0.11467490378179612;0.43094270136333163 0.15806429395735341 -0.41866561258419271 -0.46235770116440722 0.54854943947161372 -0.18551887329216601 -0.51183635522466031 0.46408201102375468 -0.98233304013594769 -0.014479413970521132 -0.086378223542801516 0.25755824844853892 0.4988809998414141 0.50589687027718555 1.0256498889191521 0.28608200241114001 -0.75663262060165315 0.34992271150536647 -0.79716325798828414 -0.17734107805203481 -0.6247108868742588 -0.95029284416625381 0.27657646807709618 -0.65915573933193794 -0.6083848747140167;-0.62920339295993388 0.68588252480154832 -1.1973157626346562 -0.55765099924835171 -0.8103782211183953 -0.018782811988922711 -0.18491943190681062 -0.81374780998194907 0.83881864842667497 -0.65716907013695169 0.15086711706036426 0.26384231815798853 -0.724353380234386 0.44968835641353705 -0.15246413975009501 0.064862224039523575 0.7523135510181872 -0.78518773890144555 0.073993928440986789 0.18192990342741952 -0.25765191424444189 0.084880197434694854 -0.36505518730986725 -0.14309434687106204 -0.89941376078704238;-1.329416477632938 -1.5983445173822479 0.56672747082600328 -1.2286263306056224 -0.80020806002060041 1.1482268198691068 2.2307935166661852 -0.43110858366172544 0.6726613339468599 0.83194122297729989 -0.98675393404873013 -0.9912980136820756 -0.06064017750830545 -0.79191449195065766 -0.97578819662401917 0.03937250021321867 -1.054347811519476 -0.25036046501057851 -1.2861330519392575 0.87676586793312561 -0.61416309453857088 -0.21354370153143265 -0.475375318701381 0.30525881683724188 0.089941240376986212;1.0567226543707184 -0.16866267775230867 1.3946915161665665 0.18792711891176486 1.4216442047930189 0.50473995705740593 0.42572545032961318 0.25422953318642 0.051914221961460345 0.83110055598090016 0.041701197572373727 -0.43077776216610114 0.39726432558951441 0.29463912910502676 -0.2037030374991923 -0.58062213632409698 0.70233763081013412 -0.54987726250737989 -0.85197012089414592 -0.43439937490428809 0.57495081295564643 0.76006999599947955 -0.76144804452584369 0.094689307057086183 -0.97044665316918699;-0.10558087377913319 -0.62328639438750022 -0.11405126157053247 -0.3350982279419788 0.058721463725388001 0.36004243165583716 -0.55136154628201373 -0.24506914797327647 -0.45252508806010455 0.56714009620099093 0.28555465248245865 0.011098207848186006 -0.69404784145145448 0.54446544284816933 -0.041480544001350851 0.45346202612188719 0.16221173694623542 0.10257093452696839 0.47672183823592401 0.63016409289800668 0.42937606904957548 -0.61920737977078533 -0.048349324553285188 -0.4235618322617043 -0.22765545774214938;-0.74208337074404196 0.1929664499760218 0.14536129222245756 -0.53692817968918294 -0.29156136221684847 0.075951883561092753 0.076724346569211233 0.027634471565184102 0.14909248570319042 0.12527395906114469 0.3660856135161985 0.01312645159521471 -0.63878191350637992 0.43730489050909627 0.52989792761818277 -0.3361310960281807 -0.19588650101678137 -0.19865417215242751 -0.54100178413872857 0.62947149028218652 0.46624820508404269 1.0821870203995254 -0.8346335315790866 -0.98236131635908241 1.0948083128639254;0.71743171605376499 0.92543515830355572 -0.70782335826496656 0.37782072273329936 0.15453044930337567 -0.42232697471977143 -0.72294257303316323 0.057675074896437244 -0.51910131604520493 0.20676851920875483 0.27392271410118296 1.1176490685768377 0.25468086491877606 0.49710396045914229 0.52737258465389025 -0.35238828256701388 0.88457726585706054 -0.41742695781805983 0.85784121748913056 -0.6976795322178122 0.64252816404914737 0.95565630203574015 -0.26691273647296754 0.094469631676263793 0.23556702911452035;0.33606744242038272 -0.094717142256318596 0.68237390975862589 0.34786225037287244 0.359607174841447 0.63749126324960503 1.4694918317835879 -0.87147002208436219 0.078450522520306584 1.0368627743556627 0.36948112545111439 0.58275699374382495 -0.53942817397320753 -0.18641157746750528 -0.098860922258649508 -0.63772490730935438 -0.59882595285654128 -0.085498462791807922 0.29114256054130183 -1.0495191453744763 -0.31613165683942002 -0.3827575520233179 0.769045273819708 0.49152669463442555 -0.29153595089942819;0.28844256085984776 -0.36302944540342641 -0.2377029996989608 0.083818445350364548 -0.062250084496349396 -0.042903474663595918 -0.14598333556159576 -0.11971692134668499 -0.32889765377759633 0.37664859463129902 -0.27792868233501566 0.40991964141268655 -0.41557940017685047 -0.57635786516984289 0.53824836777932406 -0.12710763622582891 0.5046206759130204 -0.24278625182363231 -0.17145166170859449 -0.37016540112266633 -0.16056520617852119 -0.35389078641797955 -0.013084398540902539 -0.56667242850954069 0.47553975395535808;0.056678979360431793 -0.66155646066454343 0.13456544721050318 -0.7565273869342406 0.90706743599335493 -1.6734425105528323 0.36952430143848514 -2.1486601869435709 -1.1147825390899595 -1.6069615092936129 0.013802742134001386 0.22389020000502557 0.26906895546080029 0.66098798230891109 -0.72248590486353736 -0.98738908296898609 0.3755644131301567 -1.4882507997424939 -0.3487461038784509 -1.2417416724295549 -1.0679870327589069 -0.43155260714114413 -0.68556949292549207 -1.5201185400875994 0.62643151614578274;0.3478004466459983 0.74450348166615821 -0.47205588316253527 0.23640921014529809 0.14777186542759965 0.44780797503503078 -0.41821819104036201 0.075899659974705574 -0.42157764116373336 0.65867035750761582 0.2110969452169934 0.66466884576591878 -0.90563883757556363 -0.66975157908933658 0.83625831105662407 -0.2113495841595667 -0.32129319037452564 0.77637830897487492 0.10058021419487854 0.99809836196900792 0.037971134416492219 -0.46686567713751936 -0.53304974890202228 -0.86279732601065917 0.36796134848771017;-0.70250365485331623 -0.84601306973350876 -0.3737248131166096 -0.14190655880594952 0.52318252467770621 0.23011052099808424 0.14839684601981099 -0.38304869146815285 0.47294434405564451 -0.64647657755327159 -0.060552741238863755 -0.2721270612459627 0.24759853318966027 -0.36489653028462726 -0.85203170760428004 0.37664746537089205 0.20598833079428858 -0.50345612700922782 0.31614233086457244 -1.0064059760704018 0.037449272383269012 0.26656741625141833 0.29134085381518265 0.97699773147791302 0.12528888620001069;0.990550054811424 0.54073807594442325 0.65244729307238192 2.153632421218818 -0.58919431516059695 0.80086726101753147 -0.084028509920215252 1.6079378199557388 0.80854109285478593 1.0064431304985955 -0.47840347492986979 -0.94003948092759959 1.6396509916519424 -0.077110540279636347 0.056798528132794839 0.082337965709975106 -0.66963422700663566 -0.37582353152926329 -0.65298380969431835 0.63400350545161721 -0.39297193146157749 0.32720443606617428 -0.83438788464013691 0.61010300700614628 -0.45037034990220609;0.35296324201592716 0.32853617928266488 -0.38651349139866686 0.30425531337173262 -0.23228174172303109 -0.20218212353257128 -0.29531326211356296 -0.38750658272005567 0.057522302232251139 -0.48471236744367496 0.11344956168530836 0.13131950642515866 -0.10128180369335013 0.051700330424717569 0.19708128045091786 -0.030220641779908162 -0.24267213807839894 0.2517023497407645 0.65348112738222419 -0.56363794638491627 0.19214406445846116 0.5024956627967021 -0.56437860110568283 0.59495895111820207 -0.26265712767252108;-0.053947970053329193 -1.5858810518681823 0.74631952950357705 0.89065991983881698 -0.95317407629789963 0.4133837414280625 0.40760910004420436 -0.1496193501995001 -0.8895116131184525 1.3393955503054307 -0.17030698939940189 0.16375154830066657 0.12242699636750508 -1.2247661104530647 2.7303816507244734 -0.65912138654897101 -0.43289342083048404 -0.81855136216793711 0.1938512029089505 -0.9807077772287125 -0.20051026730900354 0.31798238431797399 0.30936305804321945 0.05894436292793595 0.54448934581818897;-0.11142988369865953 0.070412873355497493 0.18761561423069562 -0.3510730179557614 0.18930737091991495 0.53602674418628304 0.58426390766318048 0.49593390727616155 0.17000140070338737 0.26830118628144162 0.45164206945162255 -0.29030463836690906 -0.25516528569214419 0.39376387622951181 0.080184530444231919 0.4116985784847349 0.1935994194599234 -0.053473434018918548 0.22529593204801082 -0.38496250322392034 -0.50963245159054082 0.1874187401739506 0.3708089460707033 -0.38511451289364734 -0.36904001538774223;0.091048448738950308 0.55388041732789883 -0.20521649767508093 -0.026539083510043401 0.14953409650891822 0.4304613881411935 0.25615144307057636 -0.58865813005844836 -0.50119210660363189 0.0028736812372425237 0.41041190540731004 -0.51643176743989938 -0.3158330925745475 -0.12791971777742056 -0.32131538996842268 0.2387332793415966 -0.24978459057135696 -0.51003766282065288 0.42122611661522591 -0.0074786328504566485 0.55249715862625814 -0.032474672480802651 -0.20660366228757218 -0.30174682181064738 -0.38081855550880322;-0.28352634289284795 0.59422352499150433 -1.0031167981936582 -0.37375924662339299 -0.38801306211430792 0.81059028917044096 -0.52615850284269794 -0.45193639767122978 0.83194796041683061 -0.073233449820399213 -0.010235594176384784 -0.38002606971188613 0.15775064673850953 0.059359676289187008 0.084863948127036848 0.37558876907384264 -0.40595629657610516 1.2677753442449655 0.13451993704744941 0.18479800740457406 0.70869063039335445 -0.10563943441004041 0.57856881152339135 0.1040374038254962 0.28304541602228861;-0.33296843712248725 -0.71239218233647728 0.2181529040152837 -0.46780983234287932 -0.47732424253108074 -0.73561899039335665 -0.50686649425700969 0.17917852776819315 -0.30908995607592804 -0.21989932086899802 0.43228427977978967 -0.026743213679082941 -0.77750642172757256 -0.5386483076325681 0.42473686625291956 -0.34607762867788433 -0.21149297111301554 0.68882744467270907 -0.0015741610492811644 -0.23511118037976261 0.29159806756907619 -0.27243606596738751 0.49119092154905325 0.37733474143379586 -0.27825899853498887;-0.60845466669237314 0.65015262597485346 -1.0468856391822257 -0.6974172047983046 0.53206466312525635 0.15912587474582648 0.24934934534686576 -0.34183218304781321 0.12551910601943145 -0.33409257473755322 -0.38762721984274456 0.82266077138967819 -0.37864038210432466 -0.6330565017724924 0.35083078355485692 -0.20975788703684156 0.50655298726945674 -0.53740841488544111 -0.41425391889306168 0.16225378080131031 -0.87372409630301906 0.30634355786362077 -1.2944191967619194 0.17890268133057238 -0.3307700059480701;0.16681766546852764 0.69653137674126742 -0.40177760048485023 -0.50383943561366651 0.55920012069344094 -0.22897397902815328 -1.3655299055870078 1.5272511854794939 0.024663756306093382 0.41117068705139426 -0.86922155299708226 -0.42132179674358833 -0.95505458191032599 -1.724187950788771 0.27202469277140506 0.61705511937162438 0.58487632408554069 0.085358522644510618 0.55874715324055391 -0.21731428655879209 -0.23319404318986786 -0.29222937120264303 -0.16192131697605075 0.9497491941597358 -1.1730007350082796;-0.026629395454578063 -0.57582973593610665 -0.028049685976483794 -1.1609859433040979 0.50549671451831324 -0.54174030658721317 0.76308110938995166 -1.0840890394990539 0.35118438641067079 -0.39652286539502385 -0.82837841045840821 -0.32251538659581469 -0.33296675517885088 -0.36736537258766694 -0.79852946844933725 -0.38851779125326924 0.47712182085881299 -0.13631750067770912 0.84596554048333006 -0.32873603215150349 0.71668860549530378 1.1022670864785002 0.6248847410874937 0.040391910982084341 0.38424096727722301;0.35423749779545033 -0.68658782958253961 1.0895956133374045 -0.77295058351907786 0.19643444976410096 -0.49486915184309521 0.70870565059317292 -0.25674343180403364 0.83131160683835015 -0.52632000159969716 -0.088383574765383596 -0.60680427766683032 0.012333379811682513 0.035402053022257442 -0.77435287987985069 0.17100151747373837 -0.89460174849531371 0.45122807055255593 -0.3228489344604642 0.50215825324201513 0.31112409170458782 -0.64422596439004587 0.47706410854053438 -0.65067837847167753 0.48886978871735226;-0.34174405782705325 -0.11879452173589351 -0.59221750328225053 -0.25369615989442063 0.12137456669564219 0.29154247933432342 -0.3499382055174648 0.073873112949366382 0.53785924879199598 -0.33660171117720955 -0.47241152450121965 -0.57207919851680511 0.52726207758678356 0.34910851841548907 -0.13969329475277673 0.68395198134329782 -0.21314895392143196 0.0097019716617598624 -0.062199414409424697 0.49355398752598073 -0.47002262026260844 -0.49512550127785548 0.084970347947030483 -0.40919914103709043 -0.91595061087930518;-0.041041485075347654 0.036297627678929308 -1.1572047686284095 -0.95416706684341945 -0.18795612865039299 1.5467516154133887 1.6358562747180081 0.36801068828772998 0.95354378097233028 1.0084834387456791 0.24147819550114408 0.40927758525998348 -0.2292851609296499 -1.1775476654297303 1.3947456916430965 -0.60183024107081473 -1.3022489048463961 1.2921572840203406 0.74223549335119188 -1.4861158318440313 0.67617605127578961 -0.37668865254768902 1.762909354742344 1.324632998783879 0.92788408130268152;-0.093594589211791437 0.011632540982402687 -0.33247975898837645 0.050662606727578781 0.49709762616747044 -1.4854067715056223 -1.0464526624881936 -0.52596705088406803 -0.57752441537534127 -0.92681637939471462 -0.2029836498772897 -0.19586376822863139 0.28718756532800765 -0.077041987647567284 -1.6431151130545585 0.029922781536798084 0.17963757161279639 0.97122715114650882 -0.3812119395183492 1.6853522189961627 -0.0076097047245825824 0.33328877939629448 0.40111156801069492 0.53327367118269142 0.14158672560783897;-0.23361407861568759 -0.015331674283333043 0.5494595930773315 0.092853282401698586 -0.4012690701677622 -0.24208982244633365 0.56366656713263552 -0.42567132817551651 0.14088706978360518 -0.43335668770494784 -0.20558882971567072 -0.026315241708711551 -0.17896364510244742 0.34574947407045609 0.064143257554238539 -0.49654656978423828 0.61570493928379222 0.1197614095806506 -0.088723115079393358 -0.053796677658619771 -0.016116473224874136 0.2003135849079774 0.66290602531151765 0.10333448827629976 0.70614507462104703;-0.26376542700992828 0.53693762310316473 -0.18432028443624682 0.038983461061743149 0.24090020534468071 0.52910876386993533 -0.45015262961456931 -0.086306990280728621 -0.16507754586317316 0.20001877549740807 0.40377994424098235 -0.69897266346006703 0.00046550318195198032 0.24208373262580465 -0.84286383770936224 0.080699652534743385 -0.08002943900769309 0.68933460508244959 -0.38743558737475564 0.27533665364330956 -0.44992745161838438 0.45658183382414808 0.33552879737689778 0.63230999892439099 0.41368843375219977;0.75226111276436902 1.3441301950641442 -0.7909823446711437 0.53870959806622143 0.75696120017778123 -0.82877460815084225 -0.1597384810765726 0.16294463178429014 -0.47939981850813629 0.15497135757181416 -0.032628671160764629 -0.13867552713826134 -0.15537101681283882 -1.3241502299237047 0.92472738577719804 0.57688777979662142 0.22924139645411154 0.030469288874459512 0.76091004415663266 0.10831592539569103 0.60847446736018151 0.25977463547065799 -0.46636607944301794 0.24778322785808354 -0.77642709399968923;-0.25947355907351644 -0.35756344573749138 0.30794938937928706 -0.0020824216290204972 0.41315749371302207 0.56359525194226334 -0.14117087430480577 0.60797949609985102 -0.39071512272248837 -0.12232675941900617 0.19321479858396351 -0.31170284435702295 0.56670508176368151 0.65583528773053168 0.48835228296522304 -0.18289393282865546 -0.48281018427235944 0.27503319988996011 -0.14456170720261674 0.14850296612231612 0.15486225122615305 -0.029792663059839068 -0.32909748548674383 -0.49694888337501336 -0.017069310155611493;-0.20420227517880027 0.16077648026650412 0.357696064886103 -0.18083039042154944 0.1416383534991299 -0.16819068247461832 0.84300158261962377 -0.052740849057558589 -0.048063882244704634 -0.34706311559475916 -0.70947157142299133 0.21490676250723115 -0.38108233691647364 -0.26367019759142479 0.33644723102706464 -0.077108170298956225 -0.40703086017198542 0.6837003015932932 -0.091749132523457039 0.80561220281127965 0.17962275917299192 -0.06392894010862589 -0.40162064033777162 0.043427210041639401 -0.25895371828405617;0.28338414319201827 0.25028060657044515 -0.8853123492129612 -0.45794576094156547 0.60597919778182696 1.4355254648105096 0.60348669092517127 1.11949026777899 0.76947580099814905 1.1498549438794829 -0.2584665428304167 0.86404149687781739 -0.65823263004218879 0.47164692751484683 -0.17090482962708353 -0.81521788630137892 -0.38220136369610808 0.53175421531471523 -0.0038516283163050032 -0.49276795058313877 0.69008157907571666 -0.2131807071189824 -0.34682771911185745 -0.034403119943504978 0.0039686055850452675;-0.17976065233015598 -0.6043006451602817 0.45078276119168859 0.74578448465988856 -0.11645230085485464 -1.1038412902987964 -1.0191405495011439 -0.33272847470493228 -1.3033385681533907 -0.83639508143894481 0.18361160706563229 -0.59796502864872314 0.51147368986462161 0.1578941384403755 -0.59888972888982239 0.56907832904386702 0.82526359299771701 -0.51950144649528274 -0.42610300279681634 0.91672150624088633 -0.88313518883490505 0.039549378949994794 -0.65905234611916264 -1.1317404743242654 0.29844894901253288;-0.76207449173073272 -0.36715429655329779 0.21149576649466323 -0.030711509205843274 -0.7860600324077095 0.24202134908098122 -0.25074692693041023 0.95321224197151855 -0.39203763199287778 -0.10927386230929659 0.31014885947917858 1.0323056849473011 -1.4809587125774464 -0.32026783293271527 -0.25962696180019912 0.40195407956295109 0.98599534110295339 0.28287817402598076 1.1629100394750804 -0.12270484633688238 0.38777813811885375 0.57988669034063012 -0.15173987878595926 -0.13155847259175144 0.0070682598022682765;-0.083686027002379301 0.44808485065620052 0.17211835021808167 0.49765944250111221 -0.32017966569810163 -0.42812465283743101 -0.34422899132139112 -0.13492497298843389 -0.4130340923407696 0.43754768288065232 0.48647941660063088 0.48109324440452828 -0.37018501867089643 0.38735137887425125 0.10388445190689022 0.26359468023787658 0.049722059685619137 0.27469433313652403 0.30562601596722633 0.48765655579792833 -0.04073606912985718 -0.13318744089564921 -0.35869144311438655 -0.53910221018463733 -0.19167642017996536;-0.32023221106332894 0.35024794302951018 0.21127041902087923 -0.16398464198236459 0.0024075950521839427 -0.43541940243850469 -0.22692733525565589 0.073601483500401535 0.11955701952405881 0.36909562269351681 0.57706068106635688 0.16087167054547294 -0.42887094729810016 0.55669577946579063 -0.035155745706503684 -0.41590766305881677 -0.16416596692315455 -0.28160073624946175 0.089222519814207465 0.49516815586479401 -0.42676814666339979 -0.44179340513877469 0.021487107010612416 -0.57292726517764603 0.54740986521788459;0.31716349722506493 -0.38563685908566675 -0.320861260833468 -0.0079130769863608886 -0.2736021977044566 0.67520341106341997 0.16917982132062334 -0.11861469422157549 -0.026365752050786902 -0.07005510473303854 -0.016353309257332638 0.21556134969217366 -0.43206545075788749 0.57973198508124024 0.67569281455839869 0.56062498546628348 0.49941650549131161 0.16570732137348984 -0.22178235434555454 0.019102570669994639 0.23640870903295103 0.23472305352565095 0.035840005186759477 -0.54936061523181678 0.11174748609057064;0.19522568030081244 0.27611651040419116 0.41680080514486145 -0.13689598864709804 -0.0051445066157518532 -0.11033282128808436 0.056923146320156812 -0.57309559762455053 0.11252685884032511 0.52893809929851965 -0.43753893777853597 0.38948514573075904 -0.34237462827253773 -0.39514615604404935 -0.51825020924764975 -0.060774792210872917 0.11393411850056025 -0.26749562501862617 -0.38371404274087934 0.16883553525437525 -0.12438168624621296 -0.48698415657766786 -0.27884458797408579 0.62915435261833286 -0.025833079049765215;0.2968363898255213 0.10736454406852876 -0.014394896683422987 -0.23783685081924275 0.16323518103076656 0.17709912932107241 0.38767417058902187 0.076373821708932907 -0.19224585546490539 -0.338048712095601 -0.15176762781958228 -0.16107834735555154 0.14019079697981468 -0.09700673878380657 0.016688851508911463 -0.43720049047050702 0.53980632074123769 -0.024906676131851872 0.4862645101449255 0.49821272291155871 0.20008378899064039 0.20590377209729641 -0.51074084761911986 -0.44476849034113414 0.30600303958362002;-0.44142351876852415 0.061796042367781141 0.45757935902321351 -0.21172459489457399 0.19571156675553883 0.30742112261284543 0.37851957090641791 0.22543953878812603 0.355404859835936 0.47046947980630766 0.44355243369460889 0.60938003384380979 0.056817657279662453 0.2161699583704545 -0.14647147327384499 -0.26461124989872448 0.3078825786649162 0.063415855931325538 -0.096720659576895962 -0.002172690345554455 0.17263611874149665 -0.52909877671679262 0.35961358212120276 -0.066009911066665566 0.11456517810109809;-0.062771659548249467 -0.059957221905518256 0.15807606108844621 0.36730990090531573 -0.45525235243784273 0.46163245791464591 0.41068314336914158 0.34530363041650519 0.28085959130756261 0.32628887299801951 0.093372441758776945 0.48736351993282662 0.47607173513019591 -0.47889805612302183 -0.34806097679167297 0.35739071960909335 -0.41289899153015858 -0.25112067117984038 -0.092675586867152215 0.2531577319491472 -0.20852705874431893 0.24183120749598844 -0.35865477291287545 0.4615406678878986 0.14501592906353492;-0.1421175752196264 -0.45333633190727535 -0.86623675310195858 0.85715615082559682 -1.4464515858815512 -0.65943513946859633 -0.78852206869500474 0.56853950270463827 -0.43067783492201556 -0.29019007641254091 0.080650908657478426 -0.17826333752402207 -0.024840538809689758 -0.20638282189818474 0.49128072252049315 0.58683837299822461 -0.87775322160655056 1.0564250332644423 -0.038029681395681587 0.63336963707071037 0.77666431049154261 0.5842633889147949 0.080381983164419538 -0.0088472011928065822 1.0001736231800875;-0.9316461330064838 -0.19263478999866168 -0.71072109090012892 -1.4698534118922459 -0.12505463350564802 -1.0786405118070377 -0.22502400064018258 -1.1634967494869524 -0.12252023615435113 -1.3764698399496502 0.72964531411155908 0.50287102141392148 0.25641828448416515 -0.037077429535599442 0.035214196149833947 -1.1665765023987476 -0.65782993590804195 -0.66535148683229894 0.18845137322591818 -1.521261047802265 0.68038651762585167 0.45795313030553053 -0.22589856222180629 -0.052637181712312561 0.85265654921504919;0.040033478709802721 -0.15632457677797226 -0.40862387973334352 0.28373956964237557 0.40979361884108489 -0.24886682283524517 0.75835650901851659 0.097744829823255025 -0.38879571769549359 -0.20892055725797698 -0.21723785131651305 -0.098739453187926818 -0.14902727481602837 -0.0088479382895191097 0.3346485090229574 0.53328869201199658 0.068723789523416998 0.39164580722278325 0.66269503964934384 0.1293297795302423 0.45051730301951681 -0.57255931984465891 0.41785644074884309 0.51843247542223914 -0.28653220346214642;0.0834273062807879 -0.24720178461529679 0.4094600072619527 0.61448291968891899 0.019316913959339592 0.62171170299202483 -0.1216064249430895 -0.30272824969580647 -0.30240424021224399 -0.050308071760163879 -0.053259588468267734 0.25022384534315834 0.41286265320211324 -0.21062448484738111 -0.43528254446382281 0.632043552950318 0.032923555678273098 0.18513338286669201 0.28476960277274049 0.56275218224836443 0.17434256431667822 -0.49713632249857315 0.25872357570869764 0.59036709027169709 -0.54151287961065364;0.27940958699702212 0.10982305217804472 -0.33062813383852463 0.18884748576454824 -0.3339369680230545 -0.45228263435389005 0.081089184798082914 -0.5647451259982823 0.034932847816816437 0.2694217176726163 -0.31258389785727292 0.48635215906464485 0.098478490452587858 -0.44381837191411272 0.12772160593348392 0.13906082618490273 0.45394249010809634 -0.18683352679444701 -0.44004148141003263 -0.24144064626430592 -0.17698171580306724 0.33600074608116043 0.5576931245328689 0.23614717208713951 0.52676949211896928;0.44624107170827398 0.50525527452047725 -0.83083226862269788 -0.70919565537764573 0.0063281278650397709 -0.081545823884451196 -0.543319244887425 -0.37049046712825967 -0.59193411738213053 0.006253838342354834 0.50646728078221992 0.10498720917459567 0.1021116914862554 -0.13960252303515214 0.60355526531061043 -0.13143343620477152 0.30522026732327723 0.032759943770413913 -0.47770319702850078 -0.16735198305225774 -0.42153642721281537 0.83821031814597025 -0.84582900644970405 -0.40913605676198378 -0.59195279820962021;-0.3520516284353154 0.33951339183885271 -0.81719993152115333 0.21021772312536818 -0.12524102810010659 0.26750402933053863 0.30408947810994114 -0.2449029552760372 0.41744681214124041 -0.066829249051434142 0.47408436954670707 -0.06318903855713838 0.14014923123802456 0.056663772048019534 -0.55202786854517671 0.075315076355873367 0.11904662662895393 0.53739034431753974 -0.30643602342851289 -0.14779164468869727 0.47657018382962724 0.14570809304867841 0.23599048900405295 -0.31711761077074513 0.23866293497844832;-0.45681978880519003 0.33902065385743496 0.25999851647861572 -0.41399897768519495 -0.13286328717687548 0.44821737446543064 0.097779303892728861 -0.26330633404734299 -0.44075547713307583 0.38326447525302421 0.43798772014874521 0.32004923683575964 0.40244561691021125 -0.19655228353110393 0.28272213960293774 -0.11785393882409576 0.024428348275721372 0.35417029995094046 -0.43364271611212568 0.24085928715334093 0.17852400961134157 -0.31855523225830201 0.23553087830847869 -0.42683418707269816 0.40452257121220547;0.35126054525542832 1.0644246752766047 0.39598103064482465 0.26436128184533197 0.74713191104643262 0.066502008801739079 -0.16471928204696756 -0.092550281028920378 -0.44873289571964647 -0.46412303578237823 -0.41555442264285791 -0.19329785790569234 0.19112592436753628 0.0042977386928684282 0.34217149787662787 -0.47524268811323422 -0.2988824710037854 -0.54642265822506852 -0.32384026115313652 0.018474956575229594 0.34835386219467795 -0.20896015438257859 0.23118809362809575 -0.034912938183040296 0.5572943282156666;-0.39875569725820764 0.57289156492728543 -0.69170142213972297 0.078208036045944063 0.19629471751734828 -0.16221739741471816 0.45145021474905977 -0.15308087785924698 0.97624499956185584 -0.77315025782221714 0.42444884005439087 -0.086491296928039613 0.10597511060675231 0.15858508126334661 0.028625599322703102 0.55047098236223968 0.21261091265879925 0.5341722399922948 0.20369937417850234 0.79763845650439014 -0.34150176998497445 0.54153405909720598 0.051649943679372111 0.64342541472058912 0.13076517802321261;0.062880584115166296 0.35037666689933916 0.31127530039589951 -0.4233573856040157 -0.29740354390068191 0.078976447409336639 0.32086279209100022 -0.5066914547712702 0.49281239856044623 -0.082133850073944206 -0.21250577825507791 -0.076507785028687825 0.077011842063358774 0.58508847158714528 0.6685957764157886 -0.031170508144342957 0.22195106788250352 -0.55103549794252216 -0.15257118989320972 0.13782943309077592 -0.40305408442731733 -0.51875810593709681 -0.0092623093741753103 0.12431499663863192 0.05436440085825707;0.078595351396077803 -0.73042110396899129 -0.25471753338514219 -0.74997428982063552 0.26011013783189924 0.11691408366977372 0.27487773230082896 0.19336913254818927 -0.35561216669566242 -0.24643048115114971 0.11998360582905684 -0.28324696483450373 0.75558665848843931 0.034669599401698586 -0.025176935733553035 0.24764445354275891 0.24576080185459964 0.20434151100336403 -0.79126242554364667 -0.38575259629622061 0.43803303594884319 0.49345577901946058 -0.24476144948924025 -0.17757194209233523 -0.07712925377661517;0.053158351682639902 -0.3983795094605932 -0.05492492425581097 -0.51589949231619803 0.29554683299980627 0.15242573992781266 -0.44029862951662413 -0.78825590015136593 -0.19077632800878233 -0.59248141895859618 -0.27325984242038204 0.26104269851224526 0.41689000748954363 0.13884936854277904 0.60943364293433155 0.22698328517496938 0.43728731089536332 -0.46964750730717458 -0.57293502618735703 -0.33735541716174655 0.17182042757540208 -0.31194563928576147 0.15726606137402618 0.044929433563086207 -0.25105903475468405;0.092707792887763249 0.10301964158050583 -0.065142930851220249 0.28341938873988098 -0.51679042183117918 -0.42796554412209681 -0.44425265876332387 0.2169078491727007 0.088345666063269643 -0.24334703646979561 0.18882959873811697 0.38593727821275103 -0.49351761837695907 -0.26800447250220988 0.20391951777971867 0.08240299126135775 -0.62000793057090486 0.17070140615697757 0.16232909497531309 -0.38702085521447127 0.53445386373776771 0.47545190246619512 -0.06719711866834778 -0.27660630936533287 -0.21898360795601665];
  
  % Layer 2
  b2 = 0.3719745063295149;
  LW2_1 = [-0.062605732940597708 2.7917017451868906 -0.0060977716846077916 -2.097821560032799 -0.29378855060568088 0.022650471332619986 1.8093086136420353 0.34251617363277348 0.47899013088344022 1.0400398119896097 -1.4581298481352978 1.7310887423757666 0.65445887361517852 0.67988313920000876 1.9068180513298969 -2.6444613997959867 5.0960469125961874 -1.6691180930196969 -1.6365294586945693 -1.8849887729326056 0.19405618656500792 -0.38527727065684569 1.087791414944641 0.70105409480193581 2.605721747913154 2.7705608724487099 0.73760694539761129 0.55917465116195508 -0.5090286792471399 -1.7597410632090176 2.6094818262153994 5.2842592295949515 -0.085882325782826396 1.1415814628637508 0.070089266972801406 1.345112742469561 2.014547253516116 1.1837760307062613 -3.2306604719939718 2.3797952801698639 1.3572006711471198 3.0158413945904283 2.0000990432959407 -1.5484250284898189 -1.2018541144348447 1.4155039535490634 1.9485934151030861 -3.920050307753324 -2.4232445753135305 1.043850295390728 1.5196411904028444 2.0564274252616896 2.1224369307753599 0.37974701724286913 4.0719432683151107 1.6384226541486955 -1.3544218728097597 -3.8013224175748372 -0.48364891284708866 3.9908827366248647 -0.18994607200928723 -0.39778411647547451 1.7332189224507559 1.1238801367186997 1.6249970881279148 -2.6909062815149425 -2.2454402436624035 -1.9742267802705411 -0.97456132047953614 4.9174835372257366 -3.1578681260268366 0.46497325802943607 -1.180183974644863 -2.2473551034666515 0.31693673117369847 0.47652413801621718 3.1623154623255032 -3.0629848414582161 2.0213036655713292 0.38040998100854251 0.26866122554869326 0.59934931942844927 0.051561194998353169 -0.0097391552541903955 -0.17200627042607042 -0.016405860660727488 2.8210763911617853 3.3676584792488091 0.50600070971091338 0.50639823169416365 0.062934531353877166 -1.2570622204443624 -0.60833217176454557 -0.17903803956748546 -0.7966889409073008 -1.2628430849644177 0.5387041146333057 -0.50159383104920052 -1.1844933414483527 0.58122067337308081];
  
  % ===== SIMULATION ========
  
  % Format Input Arguments
  isCellX = iscell(X);
  if ~isCellX, X = {X}; end;
  
  % Dimensions
  TS = size(X,2); % timesteps
  if ~isempty(X)
    Q = size(X{1},2); % samples/series
  else
    Q = 0;
  end
  
  % Allocate Outputs
  Y = cell(1,TS);
  
  % Time loop
  for ts=1:TS
  
    % Input 1
    Xp1 = mapminmax_apply(X{1,ts},x1_step1_gain,x1_step1_xoffset,x1_step1_ymin);
    
    % Layer 1
    a1 = tansig_apply(repmat(b1,1,Q) + IW1_1*Xp1);
    
    % Layer 2
    a2 = logsig_apply(repmat(b2,1,Q) + LW2_1*a1);
    
    % Output 1
    Y{1,ts} = a2;
  end
  
  % Final Delay States
  Xf = cell(1,0);
  Af = cell(2,0);
  
  % Format Output Arguments
  if ~isCellX, Y = cell2mat(Y); end
end

% ===== MODULE FUNCTIONS ========

% Map Minimum and Maximum Input Processing Function
function y = mapminmax_apply(x,settings_gain,settings_xoffset,settings_ymin)
  y = bsxfun(@minus,x,settings_xoffset);
  y = bsxfun(@times,y,settings_gain);
  y = bsxfun(@plus,y,settings_ymin);
end

% Sigmoid Positive Transfer Function
function a = logsig_apply(n)
  a = 1 ./ (1 + exp(-n));
end

% Sigmoid Symmetric Transfer Function
function a = tansig_apply(n)
  a = 2 ./ (1 + exp(-2*n)) - 1;
end
